const float weights1[] = {
-5.5543113, 0.2739916, -2.8749018, 0.5034841, 1.2353063, -0.12913433, -0.22976452, -4.1983557, -0.12006902, -0.29639965, -0.12851189, -0.06636606, -0.4243788, -0.52064157, -0.305421, 0.37409365, -1.6828431, -1.0458605, -0.32422063, -0.82367533, 0.09105707, -0.74677384, 2.012441, 1.945104, -1.1271341, 0.42619443, 1.8109727, 0.16858813, 0.6809702, 0.22328337, -0.50093305, 0.5015439, 1.4082122, -0.08070845, -0.46121487, 1.5137545, 2.4089766, 0.5380549, -0.61836225, -0.8962245, 0.88052225, 0.50455856, -1.4590755, 0.81703913, 0.63505375, -1.5594003, -0.6808526, 1.5907106, -0.056267474, 0.042872906, -0.1635187, -0.44909325, -1.8351452, -0.20627314, 0.11671867, -0.257708, 1.8845395, 0.73303527, 0.025080463, -0.7390761, -0.09534821, -0.39790457, -0.3733412, -5.005744, 1.3595551, -1.3668749, -0.62538284, -0.09244927, -0.14907955, 0.07498169, -2.6520894, 1.0089687, 0.29488617, -0.35412228, -0.9897919, -0.2145276, 0.2790515, 1.6724641, -1.5639532, 0.48853716, -1.4728874, -0.07008396, -0.255176, -0.2857493, 2.3496335, -1.0348811, 0.29108983, -0.5225599, -0.27262065, 0.6313352, 0.49236268, 4.311198, 0.9786452, 0.6152705, 0.027605625, -0.7680317, -1.064309, -0.056334265, -2.8358817, 0.45851025, -0.81645226, -0.094263315, 0.5307808, -0.7205674, 0.32471666, 5.2443447, 0.057021156, 1.3413615, -0.14870274, 0.028098485, 0.10034859, -0.053569235, 3.1248043, 1.6151714, 0.4108987, -0.71462256, -0.0999686, 0.51149243, 0.559221, -4.6653037, -0.3093506, -0.86158466, -0.22772929, -0.9959203, 1.3697128, 0.2171187, 2.5909815, -3.0020776, 2.737914, -0.64852357, 0.30533123, -2.2449007, 0.32607362, 1.9059098, 0.93104434, -0.046907455, -1.9789618, -0.32466105, 1.0611308, -0.013101889, -0.6687805, 0.48117208, 1.3367501, 0.8634059, 0.09354983, -0.6464475, -0.03602115, -4.0187426, 0.3002542, 0.025766587, 0.31888488, 1.4023408, -0.53977394, -0.16425286, 1.9118084, 0.75854844, 0.10166093, 0.1776436, 0.11082676, -1.1309644, 0.18080649, 0.15691337, -0.60682565, 0.14835747, -1.2312961, -0.23891859, -0.33907557, 0.6834071, -0.30103692, 1.7003111, 1.8944591, -0.08743793, -0.074487805, 0.83516365, 0.08942601, -1.060441, -0.660971, -0.9624637, -0.91948557, -0.3816884, -0.20312113, -0.42779782, -6.8993134, -1.1898319, -2.5805173, -0.118285455, 0.6123391, 0.13793877, -0.074128605, 2.5459816, -0.4230107, -1.0694233, 0.22543012, -0.38095558, -0.12492557, 0.19546758, 2.7148263, 1.2258674, -2.411113, 0.19879411, 0.4441781, 0.4613574, 0.20322117, -1.5658636, 0.09290982, 0.32849255, -0.66338503, 1.1817154, -0.09366392, 0.26957303, -1.5742965, -0.042811543, 0.96345437, -1.216735, -0.49032018, -0.9252124, 0.37015575, -2.9534605, -0.16522369, 1.8703455, -0.02130936, -0.46721038, -0.62515163, 0.24065365
};
const float bias1[] = {
0.27705288, 0.44770202, -0.29876816, 0.077246316, 0.13429786, -0.9712104, -0.7440763, -0.042663388, 0.33384776, -0.64556104, -0.67687273, 0.39286563, -0.3328153, -0.31713578, -0.15104134, 0.14449748, -1.0692399, -0.095260516, 0.6771152, -0.45197558, -0.53186226, 0.31787062, 0.8410353, -0.06368982, 0.31731755, -0.56761557, 0.48164642, -1.272131, 1.502358, 0.09292472, 1.2299604, 0.587363
};
const float weights2[] = {
-0.30081517, -1.4602611, -0.701944, -0.66174906, -1.6653655, -0.04710049, -0.105910264, -0.71938366, 0.9255498, -0.7849067, -1.0008098, 0.3710551, 0.04591161, -1.831551, -0.73620516, 1.0888599, -1.1308602, 0.46284667, 0.7125687, -0.13626827, 0.32494324, 0.082447864, -1.5111418, -0.4784699, -0.1299206, -0.03779824, 2.7739472, -1.2921648, 0.25338733, 0.055335335, 0.84420496, -0.49118826, -0.13574095, -0.34897053, 0.32877538, -0.49337244, 0.5716588, -0.20993163, -0.14727144, -0.42885855, 0.8691021, -0.38585037, -0.37289706, 0.5872519, -0.5521073, -0.9967023, 0.6550248, 0.21892786, -0.24463648, -0.23783141, 0.296688, -0.26805675, -0.5061904, -0.7880405, 0.12945546, 0.32847902, 0.17953882, 0.1664908, -0.15853867, -0.19184494, 0.27858335, -0.26131868, 0.090664566, -0.3715601, -1.3016503, -0.46060067, -0.21821783, 0.38648063, 0.24298047, 0.26335067, -0.19250573, -0.065488786, 0.016711986, -0.33832973, 0.09367785, 0.22446033, 0.5981404, 1.034523, -1.1310494, 0.3641478, 0.18500246, -0.43541896, 0.27329376, -0.31994227, 0.34990954, -0.37253568, 0.82874835, 0.22346687, 0.016122214, 0.39774173, -1.1447761, -0.30532205, 0.06470714, -0.9580231, 0.8031259, 0.43139508, 0.37047255, 0.15756156, -0.09010426, -0.056036822, -0.74537593, -0.38100106, -0.3251121, 0.94105506, -0.35775438, -0.17108785, -0.8900081, -0.12668079, -1.6181414, 0.22708, -0.23486456, -0.3044159, -1.1500999, 0.047687262, -0.10059611, -0.0071005635, 0.45441267, 0.31778923, -0.3873875, 0.3631673, 0.56058854, -0.45263147, 0.36457947, -0.80635315, -0.28844425, -0.47436586, 0.49350253, 0.9985508, 1.1218405, -0.4413094, -0.8356584, 0.38412824, 0.028071672, -0.42677444, -1.2759392, 0.27361313, -0.041884504, -1.8308651, -0.1999639, 0.25293773, 0.7878472, 0.17711295, -0.6353466, -1.4314095, -0.3806795, 0.1422995, 0.47168773, -0.614111, 0.6555064, -1.087137, -0.28450796, 1.6210047, -0.5252795, 0.5740554, -0.2913121, -0.47531372, 0.6229709, 0.39676812, -0.91122633, -0.59448385, 0.15337479, -0.5563668, 0.16723028, -0.029579952, -2.1653426, 0.15277314, 0.8057295, -2.403168, 2.2452998, -1.3424523, 0.51801485, 0.5251288, -1.0327438, -0.32785726, -0.23764853, 0.43072018, -0.7039629, -1.169999, 1.7826828, -1.7906209, -0.44551134, 0.98816377, -1.5117053, -0.13651134, 0.12818211, 2.7369683, -1.2018421, -0.46883553, -0.70616865, 1.5466181, 1.9120656, 1.1560358, -1.036642, -0.8023854, 0.14763409, -0.12196063, 0.55163544, -0.32672015, 0.43289983, 0.21939433, -0.13558476, 1.511383, 0.23409365, -0.46407917, 0.017808907, 0.6508413, -0.7689639, -0.45728958, 1.1367087, 0.09206064, 0.07594092, -0.32399163, 0.362165, -0.6542651, -0.44104755, -0.71378773, 1.194856, 0.16927494, -0.8982722, -0.253956, -0.515067, 0.89073914, -0.15560237, 0.61510146, 0.082336016, -1.388385, -0.46887842, 0.47215745, 0.51375586, 0.3689787, -0.31544295, 0.70631385, 0.44559675, 0.11455665, 0.25137627, -1.2427133, -0.2980252, 0.42965242, -0.27885473, 0.9366796, -0.6114738, 0.5416214, 0.4848268, 0.30703798, 0.45521137, -0.016128898, 0.06432565, 0.11950925, 0.70403355, -0.5422948, 1.3787841, -0.31810653, -1.0258543, -0.13404681, -0.8620003, 0.025721695, -0.0069760177, -1.5115077, -1.9456805, 0.10094009, 0.4966955, 0.29745734, -0.63116354, 1.4944544, -0.77374095, -0.554087, -0.49312058, -0.79931605, -0.0057186317, 0.1739392, 0.16944239, -0.6993431, 0.10340633, 0.34895977, -0.21757644, -0.004101643, 1.1659106, 0.3323242, -0.2423579, -0.22346927, 0.9564565, -0.20486319, 1.2836822, -0.92476976, -0.10797003, -1.2992187, 0.0717532, 0.26192796, -1.6887556, 0.47316363, 1.6118431, 0.062027737, -0.3022022, 0.47670224, -1.7556906, -0.8492293, 0.10168359, -1.5577364, -0.935143, 0.94308084, 0.91411746, -1.1899511, -0.75020874, -0.24063897, -0.65393466, 1.5862142, 0.6263895, -0.77045774, -1.4397378, -1.2783161, 0.8513766, 0.21208945, -0.73255056, 0.52230334, -0.8090663, -1.7383538, -0.68637323, 0.8927474, 0.09834066, 0.78589725, 0.49700615, 0.38921925, 0.5121869, 0.3392611, -0.0978956, 0.13517083, -0.34764817, 0.40864176, -0.76207465, -0.058777004, 0.6753459, -0.31646267, 0.10626664, 0.14618205, 0.043314017, -0.5415908, 1.1295232, 0.5547303, 0.6468121, -0.14625368, -0.35465178, -0.15708274, 1.4402966, 0.7022176, 0.21363638, 0.09618911, -0.61350167, -0.17310719, -0.06393802, 0.5273699, -0.42648402, 0.5613902, -0.2033865, -0.1405237, 0.12703232, -0.50282896, -0.042117134, -0.973682, 0.63633513, -1.324259, 0.8903349, -0.7607061, 0.20595019, 0.58451563, 0.8063281, 0.2249187, -0.18117385, -0.7923077, 1.3468527, 0.07539755, 0.9664113, -0.23540254, -0.97217095, -0.5235468, -0.345487, 0.5104961, -0.29212987, 0.6965481, -0.35956746, -0.51136947, 0.37559173, 0.1991081, 0.016914092, 0.30251193, 0.7486049, 0.33112368, 0.19640307, -0.42025927, 0.41238376, -0.0049591004, -0.010419142, 0.41843936, 0.33935437, -0.45539612, -0.01927721, -0.86944306, -0.77350247, 0.018559514, 0.09467864, 1.3036089, -0.51284045, 0.083002925, 0.13475373, 0.35619503, 0.60769725, 0.06584427, 0.42657238, -0.06512222, 0.38939258, -0.43227023, -0.5810385, -0.1660138, -0.2628129, -0.14861529, -0.08549308, -0.23166162, -0.18014982, -0.39539707, 1.4859598, 0.14466189, 0.18978895, 0.31210577, -1.2222525, 0.92412627, -0.68881065, 0.928601, -0.07301608, -0.4232004, 0.34631485, -0.5341363, 0.44586986, -0.47617888, 0.6525114, 0.6334248, 1.2215323, -0.5080354, 0.8581006, -0.18031989, 0.7220737, -0.4780163, -0.52186185, -0.45850378, -0.29205918, 0.46021816, -0.2620105, 0.12934628, 0.33146626, 1.1131362, -1.1306657, 0.12960654, -0.3267423, -0.56555575, 0.34738338, -0.5019989, 1.4651527, -1.3865175, 0.3677684, -0.12798603, 0.7565896, 0.011155135, 0.10735117, 0.9300597, -0.74807876, 0.7573952, -0.21110976, -0.236528, 0.10562463, 0.8394565, -1.6461251, -2.1185176, 0.39214203, -0.62837267, 0.5762584, -0.59095937, -1.0977768, -0.9035324, 0.3207791, 0.76449704, 1.3283856, 0.13649532, 0.35301527, 0.7557591, -0.01975335, 0.18390937, 0.39991137, 0.2235508, 0.2767045, -1.0790775, 0.67745566, 0.7878612, 0.69276565, 0.044645384, 1.1017896, 1.5168737, -0.8194491, 1.6837716, -0.19164887, -0.22083591, 0.36378646, 0.64941454, -0.8245744, -0.18314332, -0.36525133, -0.1487975, 0.5888417, -0.86555296, 0.002915774, 0.33594066, -0.16957562, -0.0028359548, 0.1506395, 0.5421141, 0.54556674, -0.61323416, -1.0260502, -0.008575287, 0.32525733, -0.42165253, -0.063621975, 0.22496088, 0.17306007, -0.27182132, 0.8799764, 0.24000181, -0.18097183, -0.43847752, -0.15432899, 0.43758535, -0.04520525, -0.9487806, -0.071307905, 0.3831598, 0.4211733, -0.41663614, -1.038618, -0.3279079, 0.21172568, -0.27099714, -1.2319256, 0.10580804, 0.72794497, -0.2650492, -0.41595548, -0.31123984, 0.94099855, 0.43230647, -0.03456758, -0.04026004, 1.061961, 0.6783508, -0.1722807, -0.38435718, 0.33106002, 1.0391594, 1.0194793, -0.4892048, 0.35880697, 0.15924871, -0.38452378, -0.102900095, 0.87977046, -0.5422991, -0.008385393, 0.1843172, -0.80383295, 1.4913691, -0.8068865, -0.14600208, -0.078235455, 0.27723867, -0.30703136, 1.1636735, 0.51219237, -0.6876093, -0.5012818, -0.20594715, -0.5746738, 0.5383908, -0.545867, -0.38713524, -0.47810423, -0.18663563, 0.7638574, -1.2501926, 0.92228675, -0.09819065, 1.0067146, 0.87928724, 0.6329347, 0.618879, -0.48882446, -0.66466725, 0.8812836, -0.37761927, 0.11620163, 0.9499217, 0.36779073, 0.007106951, -0.52032113, -0.4729074, 0.11637444, 0.4471898, 0.44296247, -0.12824132, -0.5758883, 1.2262108, -0.11620639, 0.105416454, 1.1683873, -0.28911126, 0.00054603134, -0.55272377, -0.40691242, 0.47704723, -0.5254237, 0.35735506, 0.30415443, 1.2664849, -0.92726463, -0.14411035, -0.69303876, -0.3909619, 0.83747244, -0.114432305, -0.66580313, 0.28697097, -0.33710474, -0.50475746, 0.26224434, 1.4371178, -0.12793694, 0.09742345, 0.09087327, 0.12687144, 1.5537745, -0.36159527, -0.18447386, -0.061235506, -0.26377064, -0.31135505, -0.40479508, -0.6776016, 0.48010153, 0.18753292, 0.84224194, 0.54558223, -0.13374947, 0.07528492, -0.21249415, 0.35880646, -0.44372383, -0.064617075, 0.5807753, 0.13618752, 0.5010109, -0.5022282, 1.1053406, 0.044549122, 0.35184738, 0.055171676, -0.3591569, -0.47240782, 0.9011292, -0.2800055, 0.13420694, -0.39649484, 0.8657121, 0.67023504, -0.41323283, 0.23829663, -0.28382522, -0.33737826, -0.51065713, -0.24454893, 0.07713165, 0.92613757, 0.18184203, 0.76615894, -0.94381887, 0.5121433, -0.43640742, 0.0094737625, -2.0874205, -0.09459405, 1.209744, -0.33566967, -0.787006, -0.67802167, -0.42252687, 1.7092135, -0.27512994, 0.19733447, -1.2393496, -0.46929008, -0.35073468, 0.45764944, -0.2553678, -1.0681927, 1.1877384, -0.24209829, 0.66264045, -0.27457282, -0.67681044, -0.7776701, -0.15232128, -0.49017987, 0.046866238, -0.09681287, 1.6061184, -0.09990226, -1.2056036, 1.0580509, 0.08932251, 1.1998677, 0.07021307, -0.36773413, 0.69358987, -0.81260675, 0.96045315, 1.4634587, -0.72170484, 0.475429, 0.09493158, 0.24819927, 1.1297407, -0.4031478, 0.87317884, 0.7000372, -0.85254943, 0.20251545, 0.55377287, 0.29087588, 0.57674205, -0.78074306, -0.9536756, -1.4307241, -1.0673743, -0.7901941, 0.098453455, -0.1306389, 0.649524, -0.2680274, -0.55039185, -0.7053052, -0.07878285, -1.0822058, 0.33825168, 1.23189, 0.97654325, -0.43263844, -0.98389786, 0.41662785, 0.38625887, 0.61553144, -0.1656363, -0.7357357, 0.33535656, -0.92522365, -2.5724368, -1.0232015, -0.3158945, -0.054993577, 1.349005, 0.59777135, -0.33627737, 0.68500453, 1.3709904, -0.18539609, 0.86301154, -0.37872067, -0.7356091, -0.6104521, 0.2122601, 0.10532273, -0.58924264, 1.8197175, -1.4030813, 0.018370947, -0.130827, -1.0958482, 0.17422499, -0.19828571, 0.39377078, 1.0119302, -0.24458058, 0.17127956, 0.053308703, -0.092596635, 0.88573605, 0.2838734, -0.04139057, -0.70509195, 0.28529, -0.5580387, -0.155562, -0.18436639, 0.31412035, -0.8190913, 0.22770356, -0.1571681, -0.14426413, -0.32163557, -0.92492205, -0.1368841, 0.21249329, 0.2605105, 0.60403746, 0.4403832, 0.3497808, 0.44587564, 0.4094688, -0.41883948, -0.6420049, -1.5508114, 1.0323304, -1.0992248, 1.0038185, -0.14542493, -0.5439238, 0.1609342, 0.5556109, -0.13332191, -0.0059076007, -0.29506904, -0.3043528, 0.09780056, 0.17591932, 0.37850422, -0.68560123, -0.30940184, 0.37095463, -1.2113314, 0.59873503, -0.339651, 0.25599742, 0.26741713, -0.41904813, 0.054169767, 0.91342306, -1.9745287, 0.7961198, -0.26861775, 0.8713482, 0.7273322, -0.7967531, 0.39573926, -0.44738978, 0.7451538, -1.2106544, -0.96776533, 0.61036867, -0.98026764, 0.49637413, 0.28424308, -1.055117, 0.6773162, 1.077406, 1.5841396, -0.97735125, -0.28247887, -0.7123279, 0.79579735, 1.8879927, 0.22518826, 1.1778775, -1.4922256, -0.99549496, -1.5529319, -0.074979074, 0.09690648, -0.4378576, 3.7826235, -2.6637516, -0.32686356, -1.1942365, -0.45373213, -2.767203, -0.3485447, 1.1608698, 1.038954, -1.0949732, 0.6858434, 0.5404129, -1.214712, 1.4073621, 0.67594504, -0.7826564, 0.88583726, 1.2527276, 0.9121903, 0.57129246, -0.9643882, -0.6571316, -1.059805, -1.1403934, -0.07360902, -0.3541731, 0.106308594, -0.3600512, -0.7035699, 0.075522244, 1.3367051, 0.0069726133, -0.08839249, -0.09414992, 0.04918302, -0.5697349, -0.042680323, -0.016707469, 0.09424707, 0.4655841, -0.37002754, -0.57173145, 1.1609621, 0.03461876, 0.0012524225, -1.2378834, 0.46369398, -0.00081115117, -0.343499, -0.19806606, 0.3285246, 0.5665464, -0.14756872, 1.2323883, 0.022963168, 0.5908302, -0.38403922, -0.22845215, 1.065956, 1.0011939, -0.51654005, -0.51876646, -0.29069412, -0.77962613, 0.034603782, -0.20941864, 0.081406996, -0.054590784, 1.0205169, 0.35092318, 0.4866724, 0.32937476, 0.010236016, 0.67155176, -0.76862335, -0.55461144, 0.03778076, -0.76836175, 0.2383713, -0.64149576, 0.48312074, -0.09130689, 0.30281702, 0.70689064, 0.7989388, 1.6497042, 0.038010422, -0.59865934, -0.055066433, -0.36878058, 0.3857298, 1.222909, -1.3446972, -0.32925585, -1.2050884, -0.31096643, 1.023076, -1.1889699, 1.1417351, 0.21002682, -1.2458448, -0.6972432, -0.4803707, -0.8773312, -0.688611, -0.8484268, -0.68874913, 0.15138574, 0.069947, 1.298718, 0.3674889, -0.23296067, 1.1051166, 0.51179117, 0.31738988, -0.015125634, -0.5723222, 0.17696784, -0.30688328, -1.8551346, 0.19104737, 0.02647922, -0.30367175, 0.5041705, -0.57402426, 0.26236048, 0.83265275, -0.86620194, -0.13862336, -0.088698424, -0.6440938, 0.29556888, 0.69369686, 0.5500682, 0.87024087, -1.7130275, 0.84844434, -0.7953639, -0.20680606, 0.19146746, 0.08732649, 0.8179887, -0.89359283, -0.4895938, 0.6900156, 0.4702204, 0.14748491, -1.9388342, 0.4139742, -0.95461106, -0.2400519, 0.8565236, 0.70073074
};
const float bias2[] = {
-0.26629728, -0.0026203727, 0.16804682, 0.115548, 0.1873834, -0.33198634, -0.42334256, -0.031094845, 1.4539865, 0.53330755, 0.42485163, -0.3681604, -0.28826886, 0.1102154, -1.0612513, 0.013514775, -0.11669615, 0.057186294, -0.20868911, 0.10112583, 0.19375189, 0.28002924, 0.5723504, 0.94172364, 0.023907049, 0.12822211, 0.354958, 0.02216672, 0.3834498, -0.40453333, -1.0565778, 0.30670944
};
const float weights3[] = {
-0.8978088, 0.494123, -0.56760746, -0.2784906, -0.37818643, 0.6823676, -0.5402876, 0.36749735, -0.44488493, 0.8625479, 0.24440664, 0.68181294, -0.36117643, -0.48248807, 0.6645804, -0.58611196, -0.29841664, 0.49969122, 0.2933978, 0.6981645, -0.3019097, 0.6955355, -0.2668268, -0.54831475, 0.591356, 0.72202724, 0.6563444, -0.40559617, -0.42878646, 0.31196043, -0.5200843, 0.6725457
};
const float bias3[] = {
-0.048853487
};
